5 300
mujer -0.0225087684 -0.1410036683 0.0355858058 0.046592962 0.025442943000000003 0.0380914323 0.0209154654 0.1348370016 -0.043753780400000004 0.0205571 -0.0163634401 -0.0474548526 -0.10344325750000001 -0.016528880200000002 -0.0025839203 -0.0383902937 0.1827374846 -0.028026223200000002 -0.0438525155 0.0380300581 0.037960682100000004 0.0828832239 -0.047673665000000004 -0.0845456347 0.0051857717 -0.0894501656 0.060607407200000005 0.010227183800000001 -0.0742909685 0.0148864789 -0.028266379600000002 -0.037592444600000004 0.0408265442 -0.0613865815 -0.062395237400000005 0.0095200567 0.0140827568 0.029016200500000002 -0.0049298722 0.0609302856 0.0001379163 -0.0679134876 -0.0151325064 0.0202801209 0.021516123800000002 -0.015286739 -0.1029522717 0.0315084867 -0.031492475400000004 -0.0726819262 -0.0343423299 0.053650882100000005 -0.0654532239 -0.1112163141 -0.0416964442 0.0686793253 0.0027671326 -0.0612318143 0.0482873954 -0.1285902858 0.006264340100000001 -0.0833608732 -0.012189793400000001 -0.0485222191 0.0169171337 -0.013702242600000001 -0.008030555200000001 0.044119354300000004 0.010845986200000001 0.044338163 -0.0280288905 0.09427195790000001 -0.07584398240000001 -0.0564233512 -0.0065210401 -0.0144272475 -0.0006355866 -0.011850372000000001 0.0228858143 -0.068951495 0.0520471744 -0.0571064651 0.015380933900000001 -0.0839826018 -0.0427798145 0.0085690385 -0.0625526756 -0.0348893516 0.036151506 0.061677437300000006 0.0195180252 -0.056073796 0.0639615878 -0.051700282800000004 0.1082223654 -0.0586167797 -0.0318206884 0.021820586200000002 0.049288045600000004 0.11107755450000001 0.1102850437 0.1087640524 0.0392441861 0.0153200952 0.005278632 0.0548436604 0.0293497499 0.047561593400000005 0.07521957900000001 -0.060287199900000005 -0.0023829895 -0.0029320398000000003 -0.0022528514000000003 -0.0408105366 0.09300713990000001 -0.0096078468 -0.0196703896 -0.023377867400000002 -0.0442260876 0.1005613878 -0.015245112600000001 -0.0096846968 -0.0107392492 0.0106746741 0.0038128793 -0.0136136515 -0.0223841537 0.0224375222 0.07656178620000001 0.09511251 -0.0196906701 -0.0241807885 -0.0051644249 -0.0240260214 -0.056356642400000004 -0.0529117398 0.09004255380000001 0.008923669300000001 0.0526262186 -0.0257602166 0.1050949991 -0.0154124219 0.0764870644 0.09256952260000001 -0.0223190449 -0.0218419358 0.0297313314 -0.045136012100000004 -0.0391721353 0.023233775 -0.0343396626 -0.0020015414 0.032909397 -0.046374149600000004 0.0633185059 -0.0337179229 -0.0583686195 0.0190862752 0.015543439400000001 -0.009899237200000001 0.0361088105 0.046571616100000005 -0.0473507904 -0.0132475477 -0.0769887269 0.0731008649 -0.1304714978 -0.08633880320000001 0.0283090733 0.0949150473 0.0218406022 0.0607568361 0.050790358300000005 0.0499684922 0.0033128208 -0.0262669455 0.037536408800000004 -0.0241234172 0.0351241715 -0.0461553447 0.11702809480000001 -0.0012571107 0.0640069544 0.051380075500000004 -0.0539577492 -0.0620616898 0.0242805891 0.047129314400000004 -0.0548329838 -0.0386918224 -0.0098071769 -0.0998809412 0.006249930700000001 -0.078024067 -0.0139914975 -0.0696212724 -0.0601404384 0.0117596472 0.031956777 -0.0374590233 -0.0283437632 0.0385423936 0.0522286259 -0.020087994600000002 0.039959315200000005 -0.029472496400000003 -0.080278866 0.0941251963 -0.0438658558 0.0781121254 -0.09330599760000001 0.009720454 0.0204076692 -0.019522829000000002 -0.1028935686 -0.008807593 -0.0498404093 0.0323276855 -0.0499124527 0.0031014832 0.0308013596 0.0246189404 -0.1337456256 -0.0009790633 0.1173029393 0.009997967600000001 0.0134124542 -0.0213421434 0.008652826800000001 0.041330874000000004 0.0010716568 0.0701843053 -0.108809419 -0.07375194880000001 -0.0858985186 0.0997288451 0.1244435832 -0.0321435668 -0.0944160596 0.054312646400000004 -0.07386936250000001 0.0530771762 -0.0364770517 0.0011028504 -0.0037827261 0.0840333104 0.0352415815 0.010987144 -0.0330481566 0.0260809585 0.1152882949 0.024429483300000002 0.0221722834 0.0080212159 -0.023509418600000002 -0.013499444400000001 -0.08323812480000001 -0.1023171917 0.1022798419 -0.0193053521 0.0128632979 0.0297153201 -0.0591477938 0.0296966434 0.0182241164 0.0418832302 -0.0229114313 0.0019176468000000001 -0.1118327081 0.0310121644 0.0318633839 0.0128222043 0.0034972071 -0.1185971126 -0.0090130605 -0.07985458520000001 -0.023143582000000003 0.1713354141 -0.0205781814 0.0164376218 0.044503603100000004 -0.0588702783 0.0771568343 0.0687033385 -0.0655306131 0.0804709867 0.0898504183 0.0460032448 -0.0199535079 0.0327119343 0.0898984522 -0.0443328284 -0.0610556975 0.10587950800000001 -0.0271776728 0.0177446045 0.0536882393 0.0247259438
hombre -0.1207868978 -0.09597156200000001 0.11693508920000001 0.11617144200000001 0.11321766670000001 0.0509960614 -0.0013242788 0.0330199115 0.0045332885000000005 0.0664796829 0.0646133348 0.0415543839 -0.04274261 -0.0449449569 0.0136157488 -0.0354757868 0.0847857296 0.0809766725 -0.0570013486 -0.0022955711 0.0026896109 -0.018111161900000002 -0.0192978624 0.037775877900000004 -0.0379683189 -0.0268857218 0.0692807212 -0.0601842068 -0.0838632435 -0.0038371519000000003 -0.0161302723 -0.0163550898 0.0616809502 0.0879258215 -0.1052757874 0.0133750495 0.0434726551 0.039856042700000004 -0.0432282872 0.0198464617 0.021073790300000003 -0.0532320067 0.0624445938 0.0349473469 -0.0901862085 0.0246473309 -0.0834722593 -0.0442546234 0.0765628144 -0.030198404600000003 -0.030774802 0.0824947953 0.0256504528 -0.0637611151 0.050589803600000004 0.1244890392 0.1633309573 -0.051613085 0.053809318700000004 -0.096035704 -0.0690149739 -0.0788629055 0.006888057600000001 -0.0133674126 -0.0707255304 -0.0512312651 0.0273521543 0.100461781 -0.0161040034 -0.0136490446 -0.026792863400000002 0.1150931716 -0.0390587971 -0.07937913390000001 0.0052309525 -0.0324059427 -0.0404700078 -0.019266706 0.0186631233 -0.0432496704 0.0393489823 -0.0139028793 -0.1054896042 -0.0079638772 -0.0695037097 0.002532728 -0.07119899240000001 -0.0131972739 0.008395182900000001 0.0299812239 0.0096087633 -0.0768438354 0.0092968922 -0.0510174409 0.055449623600000005 -0.011594235000000001 0.0053855139000000005 0.0993590876 -0.0137000559 0.0880266204 0.0013571765 0.1187006235 0.037216890600000004 0.0429686494 -0.011108864100000001 0.039538364900000005 0.025513913500000002 0.028513807800000002 0.0726315901 -0.1474838406 -0.024951567900000002 -0.0005273717 -0.006512345300000001 -0.10209903120000001 0.029018119000000002 0.016819383900000002 -0.0831148773 0.0594541654 0.0572212748 0.0646377727 -0.026241513 -1.22369e-05 0.006328765300000001 -0.02949127 -0.0423760638 -0.059377804400000005 -0.038603667200000004 0.052361451100000005 0.11435091500000001 0.0912797451 -0.0283326712 0.0381485373 -0.0488456413 -0.1161622778 -0.030399397 -0.0517841429 0.0447372459 0.0150501756 0.0447280817 0.0340493023 0.042259987400000004 -0.029127167500000002 0.0793760791 0.1871779859 -0.047245048000000005 0.027372926500000002 -0.047000683800000005 0.0820702165 0.009669243400000001 0.0482530557 0.0170585569 -0.0572487675 0.053409174100000005 -0.0332092941 0.010075196600000001 0.023695223 -0.0151525037 -0.042938102000000006 0.0405280478 0.0637824982 -0.0213917717 0.0198174454 -0.0748614222 -0.0191940069 -0.0531495325 0.047171738000000005 -0.0679122731 0.0804115757 0.0095488941 0.0547867827 0.0004862266 0.07959906010000001 0.046979300700000004 -0.017248245000000002 -0.0029897529 0.0570013486 -0.0463989303 0.0616045855 0.0435398519 -0.0191875938 0.0922083259 0.0169669203 0.122705169 0.0029216052 -0.051863558600000005 -0.0432160683 0.0535221919 -0.0773936585 -0.0335514061 -0.0610242188 -0.0681383088 -0.0991391465 0.0117405485 -0.0544019081 0.0307137109 -0.0040714378 0.0713181198 -0.043402396100000004 0.0194215737 -0.0581101552 0.0081752539 -0.07794348150000001 -0.048002582 -0.030848110100000003 -0.0181756131 0.018578510700000002 -0.0902564675 -0.0313887708 -0.0881640837 -0.016849624 0.051463410300000005 0.086655125 0.0083899898 -0.0075111901000000005 -0.0703559294 -0.040888488300000005 -0.062184955900000005 -0.0117136687 -0.0515428297 0.0336460993 -0.0062823361 0.0295774117 -0.052642475800000005 -0.0056042215 -0.0018507950000000001 -0.0195217635 -0.0629211068 -0.0399965532 -0.0188424271 -0.014281951800000001 0.0239521116 0.0694273412 -0.1263095587 -0.11753377320000001 -0.0908429399 0.028348250300000002 0.1229189858 0.050223253700000005 -0.0433932319 0.0535221919 -0.049337431800000005 0.041251979800000005 -0.041322235000000006 -0.0002162422 -0.0332245678 0.0177528597 -0.0013863781 -0.0615557097 -0.0002537676 0.0594297349 0.0372199453 -0.0656610578 0.0897158012 0.025410058000000003 -0.0462309308 -0.0311871693 -0.010282602200000001 -0.11347730460000001 0.08907739070000001 -0.0323112495 -0.0496062338 -0.0245624147 -0.0428250842 0.015458572700000001 0.0213926882 0.043283268800000003 -0.020494338100000002 0.0271423068 -0.0148934769 -0.1113207787 -0.0346082896 0.0524989069 -0.0226435345 -0.04758716 0.048387456700000005 0.0124849472 0.000390924 0.1451990306 -0.0156601742 -0.0108199017 0.0091374433 -0.10188521440000001 0.0272205044 0.0730745047 0.0284860134 0.0292264391 0.0618397892 0.060712650400000005 -0.0329924226 0.0450182632 0.0693723559 0.0190012641 -0.0911147967 0.0719595775 0.0008428172 0.0481003299 -0.037727005800000005 0.01014484
rey -0.0372291952 0.007524434000000001 -0.0736894757 -0.063513495 0.0298685208 0.0129859326 0.1289200932 0.0888999179 0.0572794303 0.0836123973 -0.028520483500000002 0.0777092502 0.0417356305 -0.029793091100000002 -0.015437462400000001 -0.0022280577 -0.0539944991 0.042485084400000005 0.0119644413 0.0777846873 0.0711637288 0.0804199278 0.0277029015 -0.044835630800000005 0.0594791174 -0.0136251552 -0.0461423025 0.0755777061 0.051235158 0.0195382722 -0.0596007779 0.057062868 -0.0361439548 -0.025028727900000002 -0.0633820966 -0.08044426140000001 -0.046933122 -0.0173836015 0.0402464643 0.0288684424 -0.0743440315 0.0013795486 -0.0608636513 -0.06801506880000001 0.0217790809 0.0385407358 -0.0247586332 -0.0214308761 0.0873864144 -0.06978648900000001 0.0589486584 -0.0275447387 -0.0078186179 0.0438039228 0.0693144351 0.049568362500000004 -0.002841342 0.0513641238 -0.0513105914 0.1012707129 0.0374116935 -0.08672455700000001 -0.0763125494 0.0163560268 -0.045796778100000005 0.08685109020000001 -0.0209858306 0.0072550699 0.050853133200000004 -0.0004126844 0.0028951175 0.07675053920000001 0.065871343 -0.0259533729 -0.0799113736 -0.0158382244 -0.0337082371 0.0648980364 -0.0407720506 0.0030963498000000002 -0.0202813968 0.0301872808 -0.0976670235 0.0018926301 -0.023169456 -0.047813966900000004 -0.0745143592 -0.002325827 -0.049991753 0.0619707964 0.0417453647 0.0592649877 0.046176370200000004 -0.0517972484 0.009394167 0.0259095747 -0.0088688219 0.0667692274 -0.022128256000000002 -0.0629465431 0.0121325813 0.0209639296 0.0107139787 0.0217686165 -0.1191528887 -0.0953213423 -0.0733755827 0.06024316700000001 0.0107166553 -0.0731906593 -0.0857244805 -0.0071891281 -0.0823787227 0.0343676582 0.0970441103 -0.0842231512 0.036754705000000006 0.1315358579 -0.1682053953 0.0374165587 -0.0020190878 0.048760511000000006 -0.0149021419 0.0013828335000000001 -0.051794815800000005 0.0629611388 0.047903999700000005 -0.0520235412 0.0905496776 0.0958298966 -0.0250700936 0.0250043944 -0.0195321869 0.0254058838 -0.0182335451 -0.0710420683 -0.0279486626 -0.0591189899 0.0195708778 -0.0076974402 0.0040287832 -0.0327835903 0.0037462790000000004 0.0157744735 0.062827304 0.0957520381 -0.0710225999 -0.06843845550000001 0.0139633818 0.035192541800000005 0.0053994502 -0.030941598100000002 0.0523058027 -0.0158618279 -0.010808875800000001 0.0305328071 -0.0994141251 -0.046356432100000004 0.0343579277 -0.0849336609 -0.0137095898 0.007817401600000001 -0.0542572923 -0.0305182077 -0.0071935081 -0.0890434757 -0.0073662708000000006 0.0405871235 0.0058218674 -0.0660197735 0.053108789 -0.052914124 0.030805334400000002 0.0549678132 0.0136278318 -0.019876010700000002 -0.0447261333 0.1278494447 -0.0346620865 -0.030167816200000003 0.0250189938 -0.0961121544 -0.014314747400000001 0.0183342826 -0.0656207129 0.10823719200000001 0.0120992456 0.0200901385 0.0369420685 0.0130586885 0.061294339600000004 -0.1451062709 -0.12060799450000001 -0.1593506932 -0.0038470170000000003 -0.0643700063 -0.09378837050000001 0.0319538414 -0.0183595903 0.0164713636 0.0385723673 -0.033540342 -0.0207118429 -0.0399642028 -0.0576736219 0.052502900400000004 0.0061391676 0.0301459152 -0.086018905 -0.09520211070000001 -0.07246310260000001 -0.0010243626 0.0703388527 0.0382292755 -0.0178386252 -0.0149101717 0.0474319421 -0.11970525230000001 0.0840284824 0.0278002322 -0.0068718279 -0.0468649864 0.0087006828 -0.0470547825 0.0811328813 0.0015487589 -0.0408207178 -0.0965331122 -0.0383825712 -0.051568523000000005 -0.0008907511 -0.0562331155 0.0609025881 0.041300073300000004 -0.056437514700000004 -0.0385042354 -0.0870481879 0.1333389282 0.07794285570000001 0.08417448400000001 0.0745630264 0.0824395567 -0.0484441891 0.0296762921 0.09915862980000001 -0.0039883903 -0.0030544973000000003 0.09989590940000001 0.026023937400000002 -0.0695553273 0.0515952893 0.025897407900000002 -0.0115663568 0.013218310700000001 0.0154143479 0.0237395745 -0.0272673443 -0.0591019578 0.07254583390000001 -0.026459496500000002 -0.014123004900000001 -0.0268025883 -0.07610329240000001 0.0552987382 0.049772758 0.045487750300000004 -0.0326181278 -0.0502740145 0.046672757700000005 -0.0311435629 0.0199721251 -0.07412260030000001 -0.013143123100000001 -0.0326765254 -0.0495269969 0.1080425307 0.0406430922 -0.027683435000000003 0.0214712694 0.1381738484 0.014779990500000001 -0.0028240657 -0.0075171343000000005 0.0159287434 -0.0564521141 0.0172631536 -0.0790694579 0.1466781646 0.0113169458 0.029878255000000003 -0.1128166318 0.0422831178 0.031983044 -0.0464002304 -0.1231969967 0.1089331135 0.0095610898 0.0209722035 -0.1050058007 0.0277856328
reina -0.0856094882 -0.0101312594 -0.1298401058 -0.0639017373 -0.0048622112 -0.021562339700000002 0.0861945227 0.0908993408 0.0121747442 0.12463349100000001 -0.0922774896 0.0341698639 0.043067887400000004 -0.11539031570000001 0.017284190300000002 0.0333253518 -0.047784939400000004 0.0333914421 -0.0036235871 0.0612825118 0.0094953012 0.0518190339 -0.002284992 0.0235120691 0.046037156100000004 0.0499513075 -0.0282827299 -0.0111718504 0.0542057119 0.061823491 -0.0502401553 0.0781850815 -0.0647046417 -0.056315776000000005 -0.0453860201 -0.1374431998 -0.0493809506 0.033956904 -0.0760848075 0.0101060458 -0.059023127 -0.0351808369 -0.0243000407 -0.1398984194 0.022611009 0.0140757626 0.0454056039 -0.0800454617 0.0543672703 0.016819339200000002 0.0357879102 -0.09689662610000001 -0.0234826952 7.57935e-05 -0.025712464 -0.0141347563 -0.0347720422 0.091477029 -0.0587098002 0.0049948860000000005 0.039457272700000004 -0.09116615360000001 -0.0112249684 0.0218842346 -0.0685502514 0.0701780841 0.0208174512 0.017115285600000002 0.0837588906 -0.0906251743 -0.0152837886 0.0565997325 0.0101807062 0.009155537 -0.0560244843 -0.038869787 -0.014745989800000001 0.09989282490000001 0.027658522100000003 -0.0106964726 -0.038607861800000004 0.0766869783 -0.1274950355 -0.022883944200000002 0.060127116700000004 0.015337885400000001 -0.0979027003 0.028622984900000002 0.067328766 0.0190740768 0.08184465020000001 0.0034936049000000003 0.0579117909 -0.0717031062 0.0824272484 0.0726945028 -0.034617830100000004 0.0371709578 -0.0090444032 -0.0517260171 0.048421386600000005 0.0748535246 0.0765082911 0.0999784991 -0.07305678730000001 -0.0746136308 -0.0075837569 0.0597011894 0.0406346992 -0.0238432679 -0.0670154318 -0.0152262626 -0.0309117455 -0.0105351582 0.0576082543 -0.033310663000000004 0.0686677471 0.085379377 -0.15541549030000001 0.0260869879 -0.0182672571 0.0547124222 -0.025499498500000002 -0.0337782055 0.0031242210000000004 0.0773283243 0.0899911746 -0.0006217109 0.0927939862 0.022671960300000002 -0.0702784434 0.0150485476 -0.0010772601 -0.034331426000000005 -0.0151736336 -0.0333938897 -0.0190466587 -0.0624036379 -0.0002941854 -0.0069052065 -0.0040664077 -0.0833084807 0.0329704098 0.0610915795 0.09066923710000001 -0.014501202900000001 -0.025565592600000003 -0.034336321100000004 -0.0138816461 -0.0028539759000000002 0.010941260500000001 -0.0063480702 0.07233955710000001 0.0844467431 -0.001153389 0.0680827051 -0.1031362563 -0.0760236084 0.0776489899 -0.0122006908 -0.0197518915 0.0045011495 0.0413421355 -0.009496036000000001 -0.0016197335 -0.0835606083 0.004002518 0.0739820823 -0.0158605073 -0.1456362456 0.09816707670000001 -0.0122702112 0.0722881481 0.0020934704 -0.0368600823 -0.0362652466 -0.0450677983 0.0337121151 -0.0062942174000000005 -0.0224259496 0.017618080600000002 -0.0954230055 0.0419075973 -0.0026738122000000003 -0.0775339454 0.0664524287 0.0136393066 0.0283072088 -0.038891814600000005 -0.0032032875 0.0237164684 -0.0888480172 -0.12226638940000001 -0.1346183568 -0.0426003449 -0.0660338402 -0.020225310700000002 0.0028483456 -0.0495376177 0.032116100200000004 0.0084485905 -0.0082828701 -0.0628981069 -0.0247088354 -0.0177287236 0.0083915554 -0.0444558337 0.0177527126 -0.0764348507 -0.0113189667 0.0118418336 0.09175119550000001 0.0112516508 -0.0018201164 0.1112631932 0.0431804918 0.022326320400000002 -0.1093367189 0.0560930222 0.0803269744 0.0689027458 0.008155090700000001 0.0628099889 -0.0629911274 0.025665953800000002 0.0450800359 0.0062193121 -0.03780251 -0.0390337892 -0.1052022576 0.1100955606 -0.012093964 0.0307257101 0.0837956071 -0.0431070514 0.011936565900000001 -0.0848016813 0.14943288270000002 0.0191673394 0.060932464900000004 -0.0052232728 0.050734628000000004 -0.032400053000000005 0.0310659632 0.0531947389 0.0136263324 -0.052431006 0.0412784927 0.0045985752 -0.0462648086 0.0451192074 0.08772199600000001 0.0301529057 0.0402210094 -0.0656617582 0.0480199344 -0.021071784200000002 -0.0070719067 0.0707337558 -0.0769170821 -0.0277882591 -0.040086377400000005 -0.0665454417 0.0557062589 -0.035474583500000004 0.047351665800000005 -0.0633436218 -0.0465438664 0.0773258805 -0.0045552477 -0.0321087576 -0.045337066100000004 0.0242373738 -0.030524984 -0.0248606019 0.0249781013 0.0354035944 -0.06871180980000001 0.0510577448 0.0998120457 0.0007888762000000001 0.0425538346 -0.0107295197 -0.012012205100000001 -0.0044634524 -0.0163664818 -0.0705305785 0.1291938722 -0.008453242500000001 0.0028963238 -0.1003432348 0.0674707368 0.1296271533 -0.0543060713 -0.0827528089 0.117507726 0.0072557419 0.0332029536 -0.0938808471 -0.0074596498
viejo -0.0670616031 -0.0927634165 -0.019471386400000002 -0.0591878183 0.0862700567 0.1016704291 0.0489255711 0.0359920599 -0.042846623800000004 0.045319084100000004 -0.017420057200000002 0.08917653560000001 0.024821192000000002 -0.0291570965 -0.0377365053 -0.1072957665 -0.0280538704 -0.0873004869 0.0209024996 -0.0174421761 -4.8332000000000004e-05 0.0034793632 -0.0009265981000000001 0.0263967924 -0.0080361925 0.0341020152 -0.0177784655 -0.0421270095 -0.0663195848 -0.017644342 -0.1038712859 -0.047371532800000005 -0.047309931400000005 0.0409369804 -0.0414437912 0.0390413329 -0.060680251600000006 0.0351996422 0.0962159038 0.0137511287 -0.0669972003 0.0037666501000000003 -0.055875334900000004 -0.0970811173 0.09855675700000001 0.00046688320000000004 -0.028154674900000003 0.061195462900000004 0.015249164800000001 -0.011634278100000001 0.0591094121 -0.0051944042 -0.0483151525 0.0635391176 -0.0541616976 -0.009400384500000001 0.0423538126 0.1508032084 0.1181992218 -0.0317723602 0.0210285019 0.0384757183 -0.0508856177 0.0188797321 -0.0511096232 0.056659355800000005 -0.034384820600000005 -0.0079642301 -0.0285130814 0.00251138 0.0386773236 -0.020294606700000002 0.0431070328 -0.0102891261 0.0593054146 -0.0330911912 -0.0106889755 -0.0033816409000000003 0.0171655305 -0.028619485 0.05145403 -0.07876867800000001 0.0087073687 0.040827773500000004 -0.0310667437 -0.1529144496 -0.1359040439 -0.0253764465 -0.0821651667 -0.061019059300000004 0.025918819000000003 -0.0222297311 0.08786889910000001 -0.0947066694 0.0466547161 -0.0790178925 0.0069192452 0.011443313200000001 -0.0151242819 -0.056334544 -0.0707184896 0.002211465 -0.0724825338 0.0320047662 -0.014794713800000001 0.0156792551 0.0084861629 0.0371008851 0.0081792753 -0.0792026967 -0.0203626473 0.0054231696000000005 0.056547351200000005 -0.075996615 0.0047463938 -0.0075008194 -0.0584569983 0.050740011 -0.1296319067 -0.010977102400000001 0.079309091 0.0022914067 0.06637838480000001 0.0333179943 -0.032290373000000004 0.019860034800000002 0.0070931297 -0.1401209384 0.1945094466 0.0573677719 0.0303135235 0.084657222 -0.0380977094 -0.020341927200000002 0.0040973378 -0.0329343863 0.0167973228 -0.0635335147 0.09311342980000001 0.026241947 0.0641299337 -0.0372520909 -0.0319963656 -0.061668675400000005 -0.0194215439 0.016949925600000002 -0.041270185300000005 -0.0021611198000000002 -0.0166469589 0.1490783691 0.0398029499 0.0156784151 0.0626430959 0.0075019393000000005 -0.058196589400000005 0.047021526800000005 -0.085928455 -0.0356672518 -0.0197511129 -0.07945470510000001 -0.0618926771 0.10977102820000001 -0.0640935302 0.060999456800000004 -0.1341036111 -0.0075963018 0.0529408678 -0.0320663676 -0.0122416131 -0.0035602851000000003 0.0086292466 -0.0073067746000000005 -0.018114753100000002 0.11963845790000001 -0.050401207100000005 -0.0914697871 -0.060019433500000004 0.0093827443 -0.036526873700000004 0.0242897402 0.0830947831 -0.0024279661 -0.0333515964 0.0247083511 0.057054162000000005 0.022364134 -0.0989963636 0.0053593279 0.057034567 -0.014287062000000001 -0.024921434000000003 -0.07796786730000001 -0.0399653539 -0.0607866533 0.00026904720000000003 -0.0117955618 0.0063110706 -0.0418918021 0.12762704490000001 -0.0732553452 0.0286390837 0.0453218855 0.0773994476 -0.0169936065 -0.0087460093 0.011900004 -0.0612850636 -0.0338108093 -0.0403489619 0.0476235412 -0.0363392681 -0.0233645998 -0.020798897400000002 0.0320019647 -0.0297087096 0.09513507780000001 0.0271063279 -0.0116692791 0.055217322000000006 -0.0587062016 -0.0739833713 0.1447858661 0.06379672880000001 -0.06342991440000001 0.048133153500000005 0.0246627089 -0.014334382500000001 -0.0208644196 0.0244403835 -0.019765391900000002 -0.0862420648 0.0073017348 0.013361359000000001 0.0693772584 -0.061867483 -0.0971987247 -0.0505104065 0.0425106175 0.1087210029 0.0444930606 0.0006959846000000001 -0.010298646100000001 -0.0189659745 -0.0248181131 -0.12660782040000002 -0.0572333708 -0.07253013550000001 0.0487379655 -0.022665141200000002 -0.0621810853 -0.0072569335 0.010815538500000001 0.0224769786 -0.033516801900000004 -0.013338679400000001 0.0715165064 -0.0144483456 0.0017831946 -0.0079202699 -0.15922300520000002 -0.0522604473 -0.0717573166 0.0004074657 0.0295939092 -0.026935804600000002 -0.1114398614 0.038918130100000004 -0.0647095442 0.0288994908 0.0382769145 -0.0449830741 -0.0979183391 -0.0236110035 0.038106109900000004 0.040516968800000004 -0.0159407817 -0.0062363092 0.0816051513 -0.0424294136 0.028179872800000002 0.07163131240000001 0.0142691415 0.0022575259 -0.11889643970000001 0.009403744700000001 -0.0470075235 -0.06380792710000001 -0.0220765676 -0.0669355989 0.0425218157 -0.0609826557 0.0947850645 -0.0237888098 0.0658911765 -0.0804655254 0.0939366445 -0.1220689192 0.07700183990000001 -0.014382824300000001 -0.0489815734